digraph Tree {
node [shape=box, fontname="helvetica"] ;
edge [fontname="helvetica"] ;
0 [label="X[10] <= 0.193\ngini = 0.493\nsamples = 836\nvalue = [368, 468]"] ;
1 [label="X[4] <= -0.212\ngini = 0.267\nsamples = 466\nvalue = [74, 392]"] ;
0 -> 1 [labeldistance=2.5, labelangle=45, headlabel="True"] ;
2 [label="X[10] <= -0.215\ngini = 0.09\nsamples = 297\nvalue = [14, 283]"] ;
1 -> 2 ;
3 [label="X[9] <= 1.556\ngini = 0.043\nsamples = 226\nvalue = [5, 221]"] ;
2 -> 3 ;
4 [label="X[9] <= -2.251\ngini = 0.035\nsamples = 224\nvalue = [4, 220]"] ;
3 -> 4 ;
5 [label="X[8] <= 2.63\ngini = 0.346\nsamples = 9\nvalue = [2, 7]"] ;
4 -> 5 ;
6 [label="gini = 0.0\nsamples = 2\nvalue = [2, 0]"] ;
5 -> 6 ;
7 [label="gini = 0.0\nsamples = 7\nvalue = [0, 7]"] ;
5 -> 7 ;
8 [label="X[6] <= 0.35\ngini = 0.018\nsamples = 215\nvalue = [2, 213]"] ;
4 -> 8 ;
9 [label="X[1] <= -1.064\ngini = 0.01\nsamples = 208\nvalue = [1, 207]"] ;
8 -> 9 ;
10 [label="X[1] <= -1.069\ngini = 0.069\nsamples = 28\nvalue = [1, 27]"] ;
9 -> 10 ;
11 [label="gini = 0.0\nsamples = 27\nvalue = [0, 27]"] ;
10 -> 11 ;
12 [label="gini = 0.0\nsamples = 1\nvalue = [1, 0]"] ;
10 -> 12 ;
13 [label="gini = 0.0\nsamples = 180\nvalue = [0, 180]"] ;
9 -> 13 ;
14 [label="X[0] <= -0.586\ngini = 0.245\nsamples = 7\nvalue = [1, 6]"] ;
8 -> 14 ;
15 [label="gini = 0.0\nsamples = 6\nvalue = [0, 6]"] ;
14 -> 15 ;
16 [label="gini = 0.0\nsamples = 1\nvalue = [1, 0]"] ;
14 -> 16 ;
17 [label="X[3] <= -0.521\ngini = 0.5\nsamples = 2\nvalue = [1, 1]"] ;
3 -> 17 ;
18 [label="gini = 0.0\nsamples = 1\nvalue = [0, 1]"] ;
17 -> 18 ;
19 [label="gini = 0.0\nsamples = 1\nvalue = [1, 0]"] ;
17 -> 19 ;
20 [label="X[0] <= -0.178\ngini = 0.221\nsamples = 71\nvalue = [9, 62]"] ;
2 -> 20 ;
21 [label="X[10] <= -0.213\ngini = 0.161\nsamples = 68\nvalue = [6, 62]"] ;
20 -> 21 ;
22 [label="gini = 0.0\nsamples = 1\nvalue = [1, 0]"] ;
21 -> 22 ;
23 [label="X[7] <= -0.003\ngini = 0.138\nsamples = 67\nvalue = [5, 62]"] ;
21 -> 23 ;
24 [label="X[8] <= 0.456\ngini = 0.355\nsamples = 13\nvalue = [3, 10]"] ;
23 -> 24 ;
25 [label="gini = 0.0\nsamples = 3\nvalue = [3, 0]"] ;
24 -> 25 ;
26 [label="gini = 0.0\nsamples = 10\nvalue = [0, 10]"] ;
24 -> 26 ;
27 [label="X[12] <= -1.855\ngini = 0.071\nsamples = 54\nvalue = [2, 52]"] ;
23 -> 27 ;
28 [label="X[7] <= 0.592\ngini = 0.5\nsamples = 2\nvalue = [1, 1]"] ;
27 -> 28 ;
29 [label="gini = 0.0\nsamples = 1\nvalue = [0, 1]"] ;
28 -> 29 ;
30 [label="gini = 0.0\nsamples = 1\nvalue = [1, 0]"] ;
28 -> 30 ;
31 [label="X[10] <= 0.104\ngini = 0.038\nsamples = 52\nvalue = [1, 51]"] ;
27 -> 31 ;
32 [label="gini = 0.0\nsamples = 46\nvalue = [0, 46]"] ;
31 -> 32 ;
33 [label="X[10] <= 0.126\ngini = 0.278\nsamples = 6\nvalue = [1, 5]"] ;
31 -> 33 ;
34 [label="gini = 0.0\nsamples = 1\nvalue = [1, 0]"] ;
33 -> 34 ;
35 [label="gini = 0.0\nsamples = 5\nvalue = [0, 5]"] ;
33 -> 35 ;
36 [label="gini = 0.0\nsamples = 3\nvalue = [3, 0]"] ;
20 -> 36 ;
37 [label="X[8] <= 0.769\ngini = 0.458\nsamples = 169\nvalue = [60, 109]"] ;
1 -> 37 ;
38 [label="X[7] <= 0.872\ngini = 0.493\nsamples = 131\nvalue = [58, 73]"] ;
37 -> 38 ;
39 [label="X[10] <= -0.213\ngini = 0.5\nsamples = 117\nvalue = [57, 60]"] ;
38 -> 39 ;
40 [label="X[8] <= -0.697\ngini = 0.458\nsamples = 59\nvalue = [21, 38]"] ;
39 -> 40 ;
41 [label="X[12] <= 2.06\ngini = 0.278\nsamples = 6\nvalue = [5, 1]"] ;
40 -> 41 ;
42 [label="gini = 0.0\nsamples = 5\nvalue = [5, 0]"] ;
41 -> 42 ;
43 [label="gini = 0.0\nsamples = 1\nvalue = [0, 1]"] ;
41 -> 43 ;
44 [label="X[1] <= 0.001\ngini = 0.422\nsamples = 53\nvalue = [16, 37]"] ;
40 -> 44 ;
45 [label="X[2] <= -0.38\ngini = 0.142\nsamples = 13\nvalue = [1, 12]"] ;
44 -> 45 ;
46 [label="gini = 0.0\nsamples = 1\nvalue = [1, 0]"] ;
45 -> 46 ;
47 [label="gini = 0.0\nsamples = 12\nvalue = [0, 12]"] ;
45 -> 47 ;
48 [label="X[3] <= 0.271\ngini = 0.469\nsamples = 40\nvalue = [15, 25]"] ;
44 -> 48 ;
49 [label="X[11] <= -0.183\ngini = 0.346\nsamples = 9\nvalue = [7, 2]"] ;
48 -> 49 ;
50 [label="X[6] <= 0.397\ngini = 0.444\nsamples = 3\nvalue = [1, 2]"] ;
49 -> 50 ;
51 [label="gini = 0.0\nsamples = 2\nvalue = [0, 2]"] ;
50 -> 51 ;
52 [label="gini = 0.0\nsamples = 1\nvalue = [1, 0]"] ;
50 -> 52 ;
53 [label="gini = 0.0\nsamples = 6\nvalue = [6, 0]"] ;
49 -> 53 ;
54 [label="X[9] <= -0.738\ngini = 0.383\nsamples = 31\nvalue = [8, 23]"] ;
48 -> 54 ;
55 [label="X[11] <= -0.691\ngini = 0.494\nsamples = 9\nvalue = [5, 4]"] ;
54 -> 55 ;
56 [label="X[8] <= 0.117\ngini = 0.444\nsamples = 6\nvalue = [2, 4]"] ;
55 -> 56 ;
57 [label="gini = 0.0\nsamples = 2\nvalue = [2, 0]"] ;
56 -> 57 ;
58 [label="gini = 0.0\nsamples = 4\nvalue = [0, 4]"] ;
56 -> 58 ;
59 [label="gini = 0.0\nsamples = 3\nvalue = [3, 0]"] ;
55 -> 59 ;
60 [label="X[10] <= -0.339\ngini = 0.236\nsamples = 22\nvalue = [3, 19]"] ;
54 -> 60 ;
61 [label="X[7] <= 0.38\ngini = 0.105\nsamples = 18\nvalue = [1, 17]"] ;
60 -> 61 ;
62 [label="gini = 0.0\nsamples = 16\nvalue = [0, 16]"] ;
61 -> 62 ;
63 [label="X[12] <= 0.833\ngini = 0.5\nsamples = 2\nvalue = [1, 1]"] ;
61 -> 63 ;
64 [label="gini = 0.0\nsamples = 1\nvalue = [0, 1]"] ;
63 -> 64 ;
65 [label="gini = 0.0\nsamples = 1\nvalue = [1, 0]"] ;
63 -> 65 ;
66 [label="X[6] <= 0.815\ngini = 0.5\nsamples = 4\nvalue = [2, 2]"] ;
60 -> 66 ;
67 [label="gini = 0.0\nsamples = 2\nvalue = [2, 0]"] ;
66 -> 67 ;
68 [label="gini = 0.0\nsamples = 2\nvalue = [0, 2]"] ;
66 -> 68 ;
69 [label="X[5] <= 2.397\ngini = 0.471\nsamples = 58\nvalue = [36, 22]"] ;
39 -> 69 ;
70 [label="X[11] <= -1.434\ngini = 0.444\nsamples = 54\nvalue = [36, 18]"] ;
69 -> 70 ;
71 [label="gini = 0.0\nsamples = 3\nvalue = [0, 3]"] ;
70 -> 71 ;
72 [label="X[0] <= -0.001\ngini = 0.415\nsamples = 51\nvalue = [36, 15]"] ;
70 -> 72 ;
73 [label="X[1] <= -0.058\ngini = 0.498\nsamples = 15\nvalue = [7, 8]"] ;
72 -> 73 ;
74 [label="X[10] <= -0.111\ngini = 0.219\nsamples = 8\nvalue = [7, 1]"] ;
73 -> 74 ;
75 [label="gini = 0.0\nsamples = 1\nvalue = [0, 1]"] ;
74 -> 75 ;
76 [label="gini = 0.0\nsamples = 7\nvalue = [7, 0]"] ;
74 -> 76 ;
77 [label="gini = 0.0\nsamples = 7\nvalue = [0, 7]"] ;
73 -> 77 ;
78 [label="X[1] <= 0.629\ngini = 0.313\nsamples = 36\nvalue = [29, 7]"] ;
72 -> 78 ;
79 [label="X[11] <= 0.938\ngini = 0.083\nsamples = 23\nvalue = [22, 1]"] ;
78 -> 79 ;
80 [label="gini = 0.0\nsamples = 20\nvalue = [20, 0]"] ;
79 -> 80 ;
81 [label="X[8] <= 0.156\ngini = 0.444\nsamples = 3\nvalue = [2, 1]"] ;
79 -> 81 ;
82 [label="gini = 0.0\nsamples = 1\nvalue = [0, 1]"] ;
81 -> 82 ;
83 [label="gini = 0.0\nsamples = 2\nvalue = [2, 0]"] ;
81 -> 83 ;
84 [label="X[0] <= 1.088\ngini = 0.497\nsamples = 13\nvalue = [7, 6]"] ;
78 -> 84 ;
85 [label="gini = 0.0\nsamples = 6\nvalue = [0, 6]"] ;
84 -> 85 ;
86 [label="gini = 0.0\nsamples = 7\nvalue = [7, 0]"] ;
84 -> 86 ;
87 [label="gini = 0.0\nsamples = 4\nvalue = [0, 4]"] ;
69 -> 87 ;
88 [label="X[2] <= 1.419\ngini = 0.133\nsamples = 14\nvalue = [1, 13]"] ;
38 -> 88 ;
89 [label="gini = 0.0\nsamples = 12\nvalue = [0, 12]"] ;
88 -> 89 ;
90 [label="X[0] <= 1.669\ngini = 0.5\nsamples = 2\nvalue = [1, 1]"] ;
88 -> 90 ;
91 [label="gini = 0.0\nsamples = 1\nvalue = [1, 0]"] ;
90 -> 91 ;
92 [label="gini = 0.0\nsamples = 1\nvalue = [0, 1]"] ;
90 -> 92 ;
93 [label="X[11] <= -2.311\ngini = 0.1\nsamples = 38\nvalue = [2, 36]"] ;
37 -> 93 ;
94 [label="X[1] <= 0.481\ngini = 0.5\nsamples = 2\nvalue = [1, 1]"] ;
93 -> 94 ;
95 [label="gini = 0.0\nsamples = 1\nvalue = [1, 0]"] ;
94 -> 95 ;
96 [label="gini = 0.0\nsamples = 1\nvalue = [0, 1]"] ;
94 -> 96 ;
97 [label="X[8] <= 2.443\ngini = 0.054\nsamples = 36\nvalue = [1, 35]"] ;
93 -> 97 ;
98 [label="gini = 0.0\nsamples = 32\nvalue = [0, 32]"] ;
97 -> 98 ;
99 [label="X[9] <= -2.987\ngini = 0.375\nsamples = 4\nvalue = [1, 3]"] ;
97 -> 99 ;
100 [label="gini = 0.0\nsamples = 3\nvalue = [0, 3]"] ;
99 -> 100 ;
101 [label="gini = 0.0\nsamples = 1\nvalue = [1, 0]"] ;
99 -> 101 ;
102 [label="X[2] <= 1.499\ngini = 0.326\nsamples = 370\nvalue = [294, 76]"] ;
0 -> 102 [labeldistance=2.5, labelangle=-45, headlabel="False"] ;
103 [label="X[0] <= -0.865\ngini = 0.267\nsamples = 340\nvalue = [286, 54]"] ;
102 -> 103 ;
104 [label="X[5] <= -0.935\ngini = 0.363\nsamples = 21\nvalue = [5, 16]"] ;
103 -> 104 ;
105 [label="X[0] <= -1.124\ngini = 0.278\nsamples = 6\nvalue = [5, 1]"] ;
104 -> 105 ;
106 [label="gini = 0.0\nsamples = 1\nvalue = [0, 1]"] ;
105 -> 106 ;
107 [label="gini = 0.0\nsamples = 5\nvalue = [5, 0]"] ;
105 -> 107 ;
108 [label="gini = 0.0\nsamples = 15\nvalue = [0, 15]"] ;
104 -> 108 ;
109 [label="X[7] <= 2.217\ngini = 0.21\nsamples = 319\nvalue = [281, 38]"] ;
103 -> 109 ;
110 [label="X[7] <= 0.315\ngini = 0.165\nsamples = 308\nvalue = [280, 28]"] ;
109 -> 110 ;
111 [label="X[12] <= 0.653\ngini = 0.058\nsamples = 199\nvalue = [193, 6]"] ;
110 -> 111 ;
112 [label="X[10] <= 0.448\ngini = 0.032\nsamples = 185\nvalue = [182, 3]"] ;
111 -> 112 ;
113 [label="X[10] <= 0.448\ngini = 0.13\nsamples = 43\nvalue = [40, 3]"] ;
112 -> 113 ;
114 [label="X[3] <= -0.548\ngini = 0.091\nsamples = 42\nvalue = [40, 2]"] ;
113 -> 114 ;
115 [label="X[4] <= -0.552\ngini = 0.375\nsamples = 8\nvalue = [6, 2]"] ;
114 -> 115 ;
116 [label="gini = 0.0\nsamples = 6\nvalue = [6, 0]"] ;
115 -> 116 ;
117 [label="gini = 0.0\nsamples = 2\nvalue = [0, 2]"] ;
115 -> 117 ;
118 [label="gini = 0.0\nsamples = 34\nvalue = [34, 0]"] ;
114 -> 118 ;
119 [label="gini = 0.0\nsamples = 1\nvalue = [0, 1]"] ;
113 -> 119 ;
120 [label="gini = 0.0\nsamples = 142\nvalue = [142, 0]"] ;
112 -> 120 ;
121 [label="X[12] <= 0.895\ngini = 0.337\nsamples = 14\nvalue = [11, 3]"] ;
111 -> 121 ;
122 [label="X[0] <= 0.047\ngini = 0.375\nsamples = 4\nvalue = [1, 3]"] ;
121 -> 122 ;
123 [label="gini = 0.0\nsamples = 2\nvalue = [0, 2]"] ;
122 -> 123 ;
124 [label="X[6] <= 0.414\ngini = 0.5\nsamples = 2\nvalue = [1, 1]"] ;
122 -> 124 ;
125 [label="gini = 0.0\nsamples = 1\nvalue = [1, 0]"] ;
124 -> 125 ;
126 [label="gini = 0.0\nsamples = 1\nvalue = [0, 1]"] ;
124 -> 126 ;
127 [label="gini = 0.0\nsamples = 10\nvalue = [10, 0]"] ;
121 -> 127 ;
128 [label="X[11] <= -0.659\ngini = 0.322\nsamples = 109\nvalue = [87, 22]"] ;
110 -> 128 ;
129 [label="X[6] <= 0.336\ngini = 0.469\nsamples = 16\nvalue = [6, 10]"] ;
128 -> 129 ;
130 [label="gini = 0.0\nsamples = 6\nvalue = [6, 0]"] ;
129 -> 130 ;
131 [label="gini = 0.0\nsamples = 10\nvalue = [0, 10]"] ;
129 -> 131 ;
132 [label="X[0] <= -0.778\ngini = 0.225\nsamples = 93\nvalue = [81, 12]"] ;
128 -> 132 ;
133 [label="gini = 0.0\nsamples = 3\nvalue = [0, 3]"] ;
132 -> 133 ;
134 [label="X[8] <= -0.217\ngini = 0.18\nsamples = 90\nvalue = [81, 9]"] ;
132 -> 134 ;
135 [label="X[10] <= 2.084\ngini = 0.148\nsamples = 87\nvalue = [80, 7]"] ;
134 -> 135 ;
136 [label="X[12] <= 0.959\ngini = 0.097\nsamples = 78\nvalue = [74, 4]"] ;
135 -> 136 ;
137 [label="X[11] <= 0.504\ngini = 0.075\nsamples = 77\nvalue = [74, 3]"] ;
136 -> 137 ;
138 [label="gini = 0.0\nsamples = 55\nvalue = [55, 0]"] ;
137 -> 138 ;
139 [label="X[6] <= 0.792\ngini = 0.236\nsamples = 22\nvalue = [19, 3]"] ;
137 -> 139 ;
140 [label="X[5] <= 0.125\ngini = 0.444\nsamples = 3\nvalue = [1, 2]"] ;
139 -> 140 ;
141 [label="gini = 0.0\nsamples = 1\nvalue = [1, 0]"] ;
140 -> 141 ;
142 [label="gini = 0.0\nsamples = 2\nvalue = [0, 2]"] ;
140 -> 142 ;
143 [label="X[10] <= 1.777\ngini = 0.1\nsamples = 19\nvalue = [18, 1]"] ;
139 -> 143 ;
144 [label="gini = 0.0\nsamples = 16\nvalue = [16, 0]"] ;
143 -> 144 ;
145 [label="X[6] <= 1.999\ngini = 0.444\nsamples = 3\nvalue = [2, 1]"] ;
143 -> 145 ;
146 [label="gini = 0.0\nsamples = 2\nvalue = [2, 0]"] ;
145 -> 146 ;
147 [label="gini = 0.0\nsamples = 1\nvalue = [0, 1]"] ;
145 -> 147 ;
148 [label="gini = 0.0\nsamples = 1\nvalue = [0, 1]"] ;
136 -> 148 ;
149 [label="X[2] <= 0.436\ngini = 0.444\nsamples = 9\nvalue = [6, 3]"] ;
135 -> 149 ;
150 [label="gini = 0.0\nsamples = 5\nvalue = [5, 0]"] ;
149 -> 150 ;
151 [label="X[0] <= 0.89\ngini = 0.375\nsamples = 4\nvalue = [1, 3]"] ;
149 -> 151 ;
152 [label="gini = 0.0\nsamples = 3\nvalue = [0, 3]"] ;
151 -> 152 ;
153 [label="gini = 0.0\nsamples = 1\nvalue = [1, 0]"] ;
151 -> 153 ;
154 [label="X[3] <= -0.421\ngini = 0.444\nsamples = 3\nvalue = [1, 2]"] ;
134 -> 154 ;
155 [label="gini = 0.0\nsamples = 1\nvalue = [1, 0]"] ;
154 -> 155 ;
156 [label="gini = 0.0\nsamples = 2\nvalue = [0, 2]"] ;
154 -> 156 ;
157 [label="X[3] <= 0.657\ngini = 0.165\nsamples = 11\nvalue = [1, 10]"] ;
109 -> 157 ;
158 [label="gini = 0.0\nsamples = 10\nvalue = [0, 10]"] ;
157 -> 158 ;
159 [label="gini = 0.0\nsamples = 1\nvalue = [1, 0]"] ;
157 -> 159 ;
160 [label="X[12] <= -0.172\ngini = 0.391\nsamples = 30\nvalue = [8, 22]"] ;
102 -> 160 ;
161 [label="X[2] <= 2.236\ngini = 0.42\nsamples = 10\nvalue = [7, 3]"] ;
160 -> 161 ;
162 [label="gini = 0.0\nsamples = 3\nvalue = [0, 3]"] ;
161 -> 162 ;
163 [label="gini = 0.0\nsamples = 7\nvalue = [7, 0]"] ;
161 -> 163 ;
164 [label="X[1] <= 1.322\ngini = 0.095\nsamples = 20\nvalue = [1, 19]"] ;
160 -> 164 ;
165 [label="gini = 0.0\nsamples = 1\nvalue = [1, 0]"] ;
164 -> 165 ;
166 [label="gini = 0.0\nsamples = 19\nvalue = [0, 19]"] ;
164 -> 166 ;
}
