digraph Tree {
node [shape=box, fontname="helvetica"] ;
edge [fontname="helvetica"] ;
0 [label="X[8] <= 0.193\ngini = 0.493\nsamples = 836\nvalue = [368, 468]"] ;
1 [label="X[10] <= -0.302\ngini = 0.267\nsamples = 466\nvalue = [74, 392]"] ;
0 -> 1 [labeldistance=2.5, labelangle=45, headlabel="True"] ;
2 [label="X[8] <= -0.35\ngini = 0.5\nsamples = 106\nvalue = [53, 53]"] ;
1 -> 2 ;
3 [label="X[10] <= -1.418\ngini = 0.369\nsamples = 41\nvalue = [10, 31]"] ;
2 -> 3 ;
4 [label="X[8] <= -0.457\ngini = 0.496\nsamples = 11\nvalue = [6, 5]"] ;
3 -> 4 ;
5 [label="X[2] <= 0.794\ngini = 0.469\nsamples = 8\nvalue = [3, 5]"] ;
4 -> 5 ;
6 [label="gini = 0.0\nsamples = 2\nvalue = [2, 0]"] ;
5 -> 6 ;
7 [label="X[9] <= -1.063\ngini = 0.278\nsamples = 6\nvalue = [1, 5]"] ;
5 -> 7 ;
8 [label="gini = 0.0\nsamples = 1\nvalue = [1, 0]"] ;
7 -> 8 ;
9 [label="gini = 0.0\nsamples = 5\nvalue = [0, 5]"] ;
7 -> 9 ;
10 [label="gini = 0.0\nsamples = 3\nvalue = [3, 0]"] ;
4 -> 10 ;
11 [label="X[4] <= -0.169\ngini = 0.231\nsamples = 30\nvalue = [4, 26]"] ;
3 -> 11 ;
12 [label="X[0] <= 0.655\ngini = 0.48\nsamples = 10\nvalue = [4, 6]"] ;
11 -> 12 ;
13 [label="X[2] <= -0.069\ngini = 0.245\nsamples = 7\nvalue = [1, 6]"] ;
12 -> 13 ;
14 [label="gini = 0.0\nsamples = 1\nvalue = [1, 0]"] ;
13 -> 14 ;
15 [label="gini = 0.0\nsamples = 6\nvalue = [0, 6]"] ;
13 -> 15 ;
16 [label="gini = 0.0\nsamples = 3\nvalue = [3, 0]"] ;
12 -> 16 ;
17 [label="gini = 0.0\nsamples = 20\nvalue = [0, 20]"] ;
11 -> 17 ;
18 [label="X[9] <= -0.951\ngini = 0.448\nsamples = 65\nvalue = [43, 22]"] ;
2 -> 18 ;
19 [label="X[4] <= 1.309\ngini = 0.401\nsamples = 18\nvalue = [5, 13]"] ;
18 -> 19 ;
20 [label="gini = 0.0\nsamples = 9\nvalue = [0, 9]"] ;
19 -> 20 ;
21 [label="X[10] <= -2.395\ngini = 0.494\nsamples = 9\nvalue = [5, 4]"] ;
19 -> 21 ;
22 [label="gini = 0.0\nsamples = 3\nvalue = [3, 0]"] ;
21 -> 22 ;
23 [label="X[13] <= -0.37\ngini = 0.444\nsamples = 6\nvalue = [2, 4]"] ;
21 -> 23 ;
24 [label="gini = 0.0\nsamples = 3\nvalue = [0, 3]"] ;
23 -> 24 ;
25 [label="X[5] <= -0.44\ngini = 0.444\nsamples = 3\nvalue = [2, 1]"] ;
23 -> 25 ;
26 [label="gini = 0.0\nsamples = 1\nvalue = [0, 1]"] ;
25 -> 26 ;
27 [label="gini = 0.0\nsamples = 2\nvalue = [2, 0]"] ;
25 -> 27 ;
28 [label="X[7] <= 0.934\ngini = 0.31\nsamples = 47\nvalue = [38, 9]"] ;
18 -> 28 ;
29 [label="X[8] <= -0.12\ngini = 0.263\nsamples = 45\nvalue = [38, 7]"] ;
28 -> 29 ;
30 [label="X[4] <= 0.342\ngini = 0.444\nsamples = 21\nvalue = [14, 7]"] ;
29 -> 30 ;
31 [label="X[10] <= -0.368\ngini = 0.444\nsamples = 9\nvalue = [3, 6]"] ;
30 -> 31 ;
32 [label="X[7] <= -0.717\ngini = 0.245\nsamples = 7\nvalue = [1, 6]"] ;
31 -> 32 ;
33 [label="gini = 0.0\nsamples = 1\nvalue = [1, 0]"] ;
32 -> 33 ;
34 [label="gini = 0.0\nsamples = 6\nvalue = [0, 6]"] ;
32 -> 34 ;
35 [label="gini = 0.0\nsamples = 2\nvalue = [2, 0]"] ;
31 -> 35 ;
36 [label="X[10] <= -0.403\ngini = 0.153\nsamples = 12\nvalue = [11, 1]"] ;
30 -> 36 ;
37 [label="gini = 0.0\nsamples = 11\nvalue = [11, 0]"] ;
36 -> 37 ;
38 [label="gini = 0.0\nsamples = 1\nvalue = [0, 1]"] ;
36 -> 38 ;
39 [label="gini = 0.0\nsamples = 24\nvalue = [24, 0]"] ;
29 -> 39 ;
40 [label="gini = 0.0\nsamples = 2\nvalue = [0, 2]"] ;
28 -> 40 ;
41 [label="X[10] <= 0.436\ngini = 0.11\nsamples = 360\nvalue = [21, 339]"] ;
1 -> 41 ;
42 [label="X[12] <= -0.055\ngini = 0.222\nsamples = 110\nvalue = [14, 96]"] ;
41 -> 42 ;
43 [label="X[13] <= 1.343\ngini = 0.331\nsamples = 62\nvalue = [13, 49]"] ;
42 -> 43 ;
44 [label="X[13] <= -0.562\ngini = 0.282\nsamples = 59\nvalue = [10, 49]"] ;
43 -> 44 ;
45 [label="X[0] <= -0.747\ngini = 0.49\nsamples = 14\nvalue = [6, 8]"] ;
44 -> 45 ;
46 [label="gini = 0.0\nsamples = 5\nvalue = [0, 5]"] ;
45 -> 46 ;
47 [label="X[8] <= -0.244\ngini = 0.444\nsamples = 9\nvalue = [6, 3]"] ;
45 -> 47 ;
48 [label="X[13] <= -0.961\ngini = 0.375\nsamples = 4\nvalue = [1, 3]"] ;
47 -> 48 ;
49 [label="gini = 0.0\nsamples = 3\nvalue = [0, 3]"] ;
48 -> 49 ;
50 [label="gini = 0.0\nsamples = 1\nvalue = [1, 0]"] ;
48 -> 50 ;
51 [label="gini = 0.0\nsamples = 5\nvalue = [5, 0]"] ;
47 -> 51 ;
52 [label="X[9] <= 1.019\ngini = 0.162\nsamples = 45\nvalue = [4, 41]"] ;
44 -> 52 ;
53 [label="X[9] <= 0.877\ngini = 0.048\nsamples = 41\nvalue = [1, 40]"] ;
52 -> 53 ;
54 [label="gini = 0.0\nsamples = 37\nvalue = [0, 37]"] ;
53 -> 54 ;
55 [label="X[1] <= -0.438\ngini = 0.375\nsamples = 4\nvalue = [1, 3]"] ;
53 -> 55 ;
56 [label="gini = 0.0\nsamples = 3\nvalue = [0, 3]"] ;
55 -> 56 ;
57 [label="gini = 0.0\nsamples = 1\nvalue = [1, 0]"] ;
55 -> 57 ;
58 [label="X[11] <= 0.304\ngini = 0.375\nsamples = 4\nvalue = [3, 1]"] ;
52 -> 58 ;
59 [label="gini = 0.0\nsamples = 3\nvalue = [3, 0]"] ;
58 -> 59 ;
60 [label="gini = 0.0\nsamples = 1\nvalue = [0, 1]"] ;
58 -> 60 ;
61 [label="gini = 0.0\nsamples = 3\nvalue = [3, 0]"] ;
43 -> 61 ;
62 [label="X[10] <= 0.402\ngini = 0.041\nsamples = 48\nvalue = [1, 47]"] ;
42 -> 62 ;
63 [label="gini = 0.0\nsamples = 45\nvalue = [0, 45]"] ;
62 -> 63 ;
64 [label="X[7] <= -0.158\ngini = 0.444\nsamples = 3\nvalue = [1, 2]"] ;
62 -> 64 ;
65 [label="gini = 0.0\nsamples = 1\nvalue = [1, 0]"] ;
64 -> 65 ;
66 [label="gini = 0.0\nsamples = 2\nvalue = [0, 2]"] ;
64 -> 66 ;
67 [label="X[13] <= 0.187\ngini = 0.054\nsamples = 250\nvalue = [7, 243]"] ;
41 -> 67 ;
68 [label="X[13] <= 0.181\ngini = 0.128\nsamples = 102\nvalue = [7, 95]"] ;
67 -> 68 ;
69 [label="X[8] <= 0.087\ngini = 0.095\nsamples = 100\nvalue = [5, 95]"] ;
68 -> 69 ;
70 [label="X[12] <= 1.731\ngini = 0.078\nsamples = 99\nvalue = [4, 95]"] ;
69 -> 70 ;
71 [label="X[0] <= -0.245\ngini = 0.059\nsamples = 98\nvalue = [3, 95]"] ;
70 -> 71 ;
72 [label="gini = 0.0\nsamples = 85\nvalue = [0, 85]"] ;
71 -> 72 ;
73 [label="X[12] <= -0.29\ngini = 0.355\nsamples = 13\nvalue = [3, 10]"] ;
71 -> 73 ;
74 [label="gini = 0.0\nsamples = 9\nvalue = [0, 9]"] ;
73 -> 74 ;
75 [label="X[7] <= 0.063\ngini = 0.375\nsamples = 4\nvalue = [3, 1]"] ;
73 -> 75 ;
76 [label="gini = 0.0\nsamples = 3\nvalue = [3, 0]"] ;
75 -> 76 ;
77 [label="gini = 0.0\nsamples = 1\nvalue = [0, 1]"] ;
75 -> 77 ;
78 [label="gini = 0.0\nsamples = 1\nvalue = [1, 0]"] ;
70 -> 78 ;
79 [label="gini = 0.0\nsamples = 1\nvalue = [1, 0]"] ;
69 -> 79 ;
80 [label="gini = 0.0\nsamples = 2\nvalue = [2, 0]"] ;
68 -> 80 ;
81 [label="gini = 0.0\nsamples = 148\nvalue = [0, 148]"] ;
67 -> 81 ;
82 [label="X[9] <= -1.768\ngini = 0.326\nsamples = 370\nvalue = [294, 76]"] ;
0 -> 82 [labeldistance=2.5, labelangle=-45, headlabel="False"] ;
83 [label="X[10] <= -2.583\ngini = 0.353\nsamples = 35\nvalue = [8, 27]"] ;
82 -> 83 ;
84 [label="gini = 0.0\nsamples = 4\nvalue = [4, 0]"] ;
83 -> 84 ;
85 [label="X[9] <= -2.286\ngini = 0.225\nsamples = 31\nvalue = [4, 27]"] ;
83 -> 85 ;
86 [label="gini = 0.0\nsamples = 18\nvalue = [0, 18]"] ;
85 -> 86 ;
87 [label="X[10] <= -0.856\ngini = 0.426\nsamples = 13\nvalue = [4, 9]"] ;
85 -> 87 ;
88 [label="X[3] <= 2.127\ngini = 0.375\nsamples = 4\nvalue = [3, 1]"] ;
87 -> 88 ;
89 [label="gini = 0.0\nsamples = 3\nvalue = [3, 0]"] ;
88 -> 89 ;
90 [label="gini = 0.0\nsamples = 1\nvalue = [0, 1]"] ;
88 -> 90 ;
91 [label="X[12] <= 1.115\ngini = 0.198\nsamples = 9\nvalue = [1, 8]"] ;
87 -> 91 ;
92 [label="gini = 0.0\nsamples = 7\nvalue = [0, 7]"] ;
91 -> 92 ;
93 [label="X[10] <= 1.268\ngini = 0.5\nsamples = 2\nvalue = [1, 1]"] ;
91 -> 93 ;
94 [label="gini = 0.0\nsamples = 1\nvalue = [1, 0]"] ;
93 -> 94 ;
95 [label="gini = 0.0\nsamples = 1\nvalue = [0, 1]"] ;
93 -> 95 ;
96 [label="X[0] <= -0.785\ngini = 0.25\nsamples = 335\nvalue = [286, 49]"] ;
82 -> 96 ;
97 [label="X[3] <= -0.897\ngini = 0.458\nsamples = 31\nvalue = [11, 20]"] ;
96 -> 97 ;
98 [label="X[0] <= -1.124\ngini = 0.26\nsamples = 13\nvalue = [11, 2]"] ;
97 -> 98 ;
99 [label="gini = 0.0\nsamples = 2\nvalue = [0, 2]"] ;
98 -> 99 ;
100 [label="gini = 0.0\nsamples = 11\nvalue = [11, 0]"] ;
98 -> 100 ;
101 [label="gini = 0.0\nsamples = 18\nvalue = [0, 18]"] ;
97 -> 101 ;
102 [label="X[6] <= -2.048\ngini = 0.173\nsamples = 304\nvalue = [275, 29]"] ;
96 -> 102 ;
103 [label="gini = 0.0\nsamples = 5\nvalue = [0, 5]"] ;
102 -> 103 ;
104 [label="X[8] <= 0.483\ngini = 0.148\nsamples = 299\nvalue = [275, 24]"] ;
102 -> 104 ;
105 [label="X[12] <= -0.655\ngini = 0.323\nsamples = 79\nvalue = [63, 16]"] ;
104 -> 105 ;
106 [label="X[4] <= 0.13\ngini = 0.497\nsamples = 28\nvalue = [15, 13]"] ;
105 -> 106 ;
107 [label="X[12] <= -0.792\ngini = 0.208\nsamples = 17\nvalue = [15, 2]"] ;
106 -> 107 ;
108 [label="X[3] <= -0.831\ngini = 0.117\nsamples = 16\nvalue = [15, 1]"] ;
107 -> 108 ;
109 [label="X[0] <= -0.214\ngini = 0.32\nsamples = 5\nvalue = [4, 1]"] ;
108 -> 109 ;
110 [label="gini = 0.0\nsamples = 4\nvalue = [4, 0]"] ;
109 -> 110 ;
111 [label="gini = 0.0\nsamples = 1\nvalue = [0, 1]"] ;
109 -> 111 ;
112 [label="gini = 0.0\nsamples = 11\nvalue = [11, 0]"] ;
108 -> 112 ;
113 [label="gini = 0.0\nsamples = 1\nvalue = [0, 1]"] ;
107 -> 113 ;
114 [label="gini = 0.0\nsamples = 11\nvalue = [0, 11]"] ;
106 -> 114 ;
115 [label="X[4] <= -0.684\ngini = 0.111\nsamples = 51\nvalue = [48, 3]"] ;
105 -> 115 ;
116 [label="gini = 0.0\nsamples = 1\nvalue = [0, 1]"] ;
115 -> 116 ;
117 [label="X[9] <= -1.123\ngini = 0.077\nsamples = 50\nvalue = [48, 2]"] ;
115 -> 117 ;
118 [label="X[4] <= 0.897\ngini = 0.408\nsamples = 7\nvalue = [5, 2]"] ;
117 -> 118 ;
119 [label="gini = 0.0\nsamples = 2\nvalue = [0, 2]"] ;
118 -> 119 ;
120 [label="gini = 0.0\nsamples = 5\nvalue = [5, 0]"] ;
118 -> 120 ;
121 [label="gini = 0.0\nsamples = 43\nvalue = [43, 0]"] ;
117 -> 121 ;
122 [label="X[8] <= 2.139\ngini = 0.07\nsamples = 220\nvalue = [212, 8]"] ;
104 -> 122 ;
123 [label="X[13] <= 0.739\ngini = 0.047\nsamples = 209\nvalue = [204, 5]"] ;
122 -> 123 ;
124 [label="X[9] <= -1.699\ngini = 0.03\nsamples = 199\nvalue = [196, 3]"] ;
123 -> 124 ;
125 [label="X[13] <= 0.183\ngini = 0.5\nsamples = 2\nvalue = [1, 1]"] ;
124 -> 125 ;
126 [label="gini = 0.0\nsamples = 1\nvalue = [1, 0]"] ;
125 -> 126 ;
127 [label="gini = 0.0\nsamples = 1\nvalue = [0, 1]"] ;
125 -> 127 ;
128 [label="X[10] <= 0.58\ngini = 0.02\nsamples = 197\nvalue = [195, 2]"] ;
124 -> 128 ;
129 [label="X[12] <= 0.793\ngini = 0.01\nsamples = 190\nvalue = [189, 1]"] ;
128 -> 129 ;
130 [label="gini = 0.0\nsamples = 162\nvalue = [162, 0]"] ;
129 -> 130 ;
131 [label="X[12] <= 0.81\ngini = 0.069\nsamples = 28\nvalue = [27, 1]"] ;
129 -> 131 ;
132 [label="gini = 0.0\nsamples = 1\nvalue = [0, 1]"] ;
131 -> 132 ;
133 [label="gini = 0.0\nsamples = 27\nvalue = [27, 0]"] ;
131 -> 133 ;
134 [label="X[4] <= -0.201\ngini = 0.245\nsamples = 7\nvalue = [6, 1]"] ;
128 -> 134 ;
135 [label="gini = 0.0\nsamples = 6\nvalue = [6, 0]"] ;
134 -> 135 ;
136 [label="gini = 0.0\nsamples = 1\nvalue = [0, 1]"] ;
134 -> 136 ;
137 [label="X[13] <= 0.884\ngini = 0.32\nsamples = 10\nvalue = [8, 2]"] ;
123 -> 137 ;
138 [label="gini = 0.0\nsamples = 2\nvalue = [0, 2]"] ;
137 -> 138 ;
139 [label="gini = 0.0\nsamples = 8\nvalue = [8, 0]"] ;
137 -> 139 ;
140 [label="X[9] <= -0.611\ngini = 0.397\nsamples = 11\nvalue = [8, 3]"] ;
122 -> 140 ;
141 [label="gini = 0.0\nsamples = 3\nvalue = [0, 3]"] ;
140 -> 141 ;
142 [label="gini = 0.0\nsamples = 8\nvalue = [8, 0]"] ;
140 -> 142 ;
}
