digraph Tree {
node [shape=box, fontname="helvetica"] ;
edge [fontname="helvetica"] ;
0 [label="X[24] <= 0.193\ngini = 0.493\nsamples = 836\nvalue = [368, 468]"] ;
1 [label="X[14] <= 0.258\ngini = 0.267\nsamples = 466\nvalue = [74, 392]"] ;
0 -> 1 [labeldistance=2.5, labelangle=45, headlabel="True"] ;
2 [label="X[23] <= -0.991\ngini = 0.11\nsamples = 360\nvalue = [21, 339]"] ;
1 -> 2 ;
3 [label="X[21] <= -1.44\ngini = 0.375\nsamples = 8\nvalue = [6, 2]"] ;
2 -> 3 ;
4 [label="gini = 0.0\nsamples = 2\nvalue = [0, 2]"] ;
3 -> 4 ;
5 [label="gini = 0.0\nsamples = 6\nvalue = [6, 0]"] ;
3 -> 5 ;
6 [label="X[15] <= -1.168\ngini = 0.082\nsamples = 352\nvalue = [15, 337]"] ;
2 -> 6 ;
7 [label="X[15] <= -1.197\ngini = 0.48\nsamples = 10\nvalue = [4, 6]"] ;
6 -> 7 ;
8 [label="X[12] <= -0.366\ngini = 0.245\nsamples = 7\nvalue = [1, 6]"] ;
7 -> 8 ;
9 [label="gini = 0.0\nsamples = 6\nvalue = [0, 6]"] ;
8 -> 9 ;
10 [label="gini = 0.0\nsamples = 1\nvalue = [1, 0]"] ;
8 -> 10 ;
11 [label="gini = 0.0\nsamples = 3\nvalue = [3, 0]"] ;
7 -> 11 ;
12 [label="X[19] <= 1.024\ngini = 0.062\nsamples = 342\nvalue = [11, 331]"] ;
6 -> 12 ;
13 [label="X[12] <= -1.332\ngini = 0.052\nsamples = 337\nvalue = [9, 328]"] ;
12 -> 13 ;
14 [label="X[18] <= -0.314\ngini = 0.5\nsamples = 2\nvalue = [1, 1]"] ;
13 -> 14 ;
15 [label="gini = 0.0\nsamples = 1\nvalue = [0, 1]"] ;
14 -> 15 ;
16 [label="gini = 0.0\nsamples = 1\nvalue = [1, 0]"] ;
14 -> 16 ;
17 [label="X[24] <= -0.018\ngini = 0.047\nsamples = 335\nvalue = [8, 327]"] ;
13 -> 17 ;
18 [label="X[24] <= -2.923\ngini = 0.026\nsamples = 301\nvalue = [4, 297]"] ;
17 -> 18 ;
19 [label="X[8] <= 0.846\ngini = 0.32\nsamples = 5\nvalue = [1, 4]"] ;
18 -> 19 ;
20 [label="gini = 0.0\nsamples = 1\nvalue = [1, 0]"] ;
19 -> 20 ;
21 [label="gini = 0.0\nsamples = 4\nvalue = [0, 4]"] ;
19 -> 21 ;
22 [label="X[11] <= 0.106\ngini = 0.02\nsamples = 296\nvalue = [3, 293]"] ;
18 -> 22 ;
23 [label="gini = 0.0\nsamples = 204\nvalue = [0, 204]"] ;
22 -> 23 ;
24 [label="X[11] <= 0.112\ngini = 0.063\nsamples = 92\nvalue = [3, 89]"] ;
22 -> 24 ;
25 [label="gini = 0.0\nsamples = 1\nvalue = [1, 0]"] ;
24 -> 25 ;
26 [label="X[9] <= -0.465\ngini = 0.043\nsamples = 91\nvalue = [2, 89]"] ;
24 -> 26 ;
27 [label="X[21] <= -0.693\ngini = 0.5\nsamples = 2\nvalue = [1, 1]"] ;
26 -> 27 ;
28 [label="gini = 0.0\nsamples = 1\nvalue = [0, 1]"] ;
27 -> 28 ;
29 [label="gini = 0.0\nsamples = 1\nvalue = [1, 0]"] ;
27 -> 29 ;
30 [label="X[9] <= -0.151\ngini = 0.022\nsamples = 89\nvalue = [1, 88]"] ;
26 -> 30 ;
31 [label="X[13] <= -0.425\ngini = 0.18\nsamples = 10\nvalue = [1, 9]"] ;
30 -> 31 ;
32 [label="gini = 0.0\nsamples = 9\nvalue = [0, 9]"] ;
31 -> 32 ;
33 [label="gini = 0.0\nsamples = 1\nvalue = [1, 0]"] ;
31 -> 33 ;
34 [label="gini = 0.0\nsamples = 79\nvalue = [0, 79]"] ;
30 -> 34 ;
35 [label="X[23] <= -0.625\ngini = 0.208\nsamples = 34\nvalue = [4, 30]"] ;
17 -> 35 ;
36 [label="X[9] <= -0.565\ngini = 0.48\nsamples = 5\nvalue = [3, 2]"] ;
35 -> 36 ;
37 [label="gini = 0.0\nsamples = 2\nvalue = [0, 2]"] ;
36 -> 37 ;
38 [label="gini = 0.0\nsamples = 3\nvalue = [3, 0]"] ;
36 -> 38 ;
39 [label="X[16] <= 0.811\ngini = 0.067\nsamples = 29\nvalue = [1, 28]"] ;
35 -> 39 ;
40 [label="gini = 0.0\nsamples = 26\nvalue = [0, 26]"] ;
39 -> 40 ;
41 [label="X[2] <= 0.049\ngini = 0.444\nsamples = 3\nvalue = [1, 2]"] ;
39 -> 41 ;
42 [label="gini = 0.0\nsamples = 2\nvalue = [0, 2]"] ;
41 -> 42 ;
43 [label="gini = 0.0\nsamples = 1\nvalue = [1, 0]"] ;
41 -> 43 ;
44 [label="X[22] <= 0.619\ngini = 0.48\nsamples = 5\nvalue = [2, 3]"] ;
12 -> 44 ;
45 [label="gini = 0.0\nsamples = 3\nvalue = [0, 3]"] ;
44 -> 45 ;
46 [label="gini = 0.0\nsamples = 2\nvalue = [2, 0]"] ;
44 -> 46 ;
47 [label="X[16] <= 0.146\ngini = 0.5\nsamples = 106\nvalue = [53, 53]"] ;
1 -> 47 ;
48 [label="X[12] <= -0.351\ngini = 0.271\nsamples = 31\nvalue = [5, 26]"] ;
47 -> 48 ;
49 [label="gini = 0.0\nsamples = 2\nvalue = [2, 0]"] ;
48 -> 49 ;
50 [label="X[0] <= 1.873\ngini = 0.185\nsamples = 29\nvalue = [3, 26]"] ;
48 -> 50 ;
51 [label="X[14] <= 1.569\ngini = 0.133\nsamples = 28\nvalue = [2, 26]"] ;
50 -> 51 ;
52 [label="gini = 0.0\nsamples = 21\nvalue = [0, 21]"] ;
51 -> 52 ;
53 [label="X[23] <= 0.467\ngini = 0.408\nsamples = 7\nvalue = [2, 5]"] ;
51 -> 53 ;
54 [label="gini = 0.0\nsamples = 2\nvalue = [2, 0]"] ;
53 -> 54 ;
55 [label="gini = 0.0\nsamples = 5\nvalue = [0, 5]"] ;
53 -> 55 ;
56 [label="gini = 0.0\nsamples = 1\nvalue = [1, 0]"] ;
50 -> 56 ;
57 [label="X[24] <= -0.457\ngini = 0.461\nsamples = 75\nvalue = [48, 27]"] ;
47 -> 57 ;
58 [label="X[11] <= -0.49\ngini = 0.351\nsamples = 22\nvalue = [5, 17]"] ;
57 -> 58 ;
59 [label="X[0] <= -0.353\ngini = 0.444\nsamples = 6\nvalue = [4, 2]"] ;
58 -> 59 ;
60 [label="gini = 0.0\nsamples = 4\nvalue = [4, 0]"] ;
59 -> 60 ;
61 [label="gini = 0.0\nsamples = 2\nvalue = [0, 2]"] ;
59 -> 61 ;
62 [label="X[22] <= 1.583\ngini = 0.117\nsamples = 16\nvalue = [1, 15]"] ;
58 -> 62 ;
63 [label="gini = 0.0\nsamples = 15\nvalue = [0, 15]"] ;
62 -> 63 ;
64 [label="gini = 0.0\nsamples = 1\nvalue = [1, 0]"] ;
62 -> 64 ;
65 [label="X[14] <= 1.074\ngini = 0.306\nsamples = 53\nvalue = [43, 10]"] ;
57 -> 65 ;
66 [label="X[23] <= -0.242\ngini = 0.473\nsamples = 26\nvalue = [16, 10]"] ;
65 -> 66 ;
67 [label="X[24] <= -0.355\ngini = 0.133\nsamples = 14\nvalue = [13, 1]"] ;
66 -> 67 ;
68 [label="gini = 0.0\nsamples = 1\nvalue = [0, 1]"] ;
67 -> 68 ;
69 [label="gini = 0.0\nsamples = 13\nvalue = [13, 0]"] ;
67 -> 69 ;
70 [label="X[15] <= 0.44\ngini = 0.375\nsamples = 12\nvalue = [3, 9]"] ;
66 -> 70 ;
71 [label="X[22] <= 0.451\ngini = 0.5\nsamples = 6\nvalue = [3, 3]"] ;
70 -> 71 ;
72 [label="gini = 0.0\nsamples = 3\nvalue = [0, 3]"] ;
71 -> 72 ;
73 [label="gini = 0.0\nsamples = 3\nvalue = [3, 0]"] ;
71 -> 73 ;
74 [label="gini = 0.0\nsamples = 6\nvalue = [0, 6]"] ;
70 -> 74 ;
75 [label="gini = 0.0\nsamples = 27\nvalue = [27, 0]"] ;
65 -> 75 ;
76 [label="X[20] <= 0.923\ngini = 0.326\nsamples = 370\nvalue = [294, 76]"] ;
0 -> 76 [labeldistance=2.5, labelangle=-45, headlabel="False"] ;
77 [label="X[4] <= -0.005\ngini = 0.207\nsamples = 315\nvalue = [278, 37]"] ;
76 -> 77 ;
78 [label="X[1] <= 0.287\ngini = 0.499\nsamples = 52\nvalue = [27, 25]"] ;
77 -> 78 ;
79 [label="X[24] <= 1.219\ngini = 0.408\nsamples = 35\nvalue = [10, 25]"] ;
78 -> 79 ;
80 [label="X[15] <= 1.03\ngini = 0.312\nsamples = 31\nvalue = [6, 25]"] ;
79 -> 80 ;
81 [label="X[12] <= -1.058\ngini = 0.238\nsamples = 29\nvalue = [4, 25]"] ;
80 -> 81 ;
82 [label="gini = 0.0\nsamples = 1\nvalue = [1, 0]"] ;
81 -> 82 ;
83 [label="X[2] <= -0.042\ngini = 0.191\nsamples = 28\nvalue = [3, 25]"] ;
81 -> 83 ;
84 [label="X[9] <= -0.653\ngini = 0.087\nsamples = 22\nvalue = [1, 21]"] ;
83 -> 84 ;
85 [label="X[19] <= -0.243\ngini = 0.5\nsamples = 2\nvalue = [1, 1]"] ;
84 -> 85 ;
86 [label="gini = 0.0\nsamples = 1\nvalue = [0, 1]"] ;
85 -> 86 ;
87 [label="gini = 0.0\nsamples = 1\nvalue = [1, 0]"] ;
85 -> 87 ;
88 [label="gini = 0.0\nsamples = 20\nvalue = [0, 20]"] ;
84 -> 88 ;
89 [label="X[6] <= 0.023\ngini = 0.444\nsamples = 6\nvalue = [2, 4]"] ;
83 -> 89 ;
90 [label="gini = 0.0\nsamples = 4\nvalue = [0, 4]"] ;
89 -> 90 ;
91 [label="gini = 0.0\nsamples = 2\nvalue = [2, 0]"] ;
89 -> 91 ;
92 [label="gini = 0.0\nsamples = 2\nvalue = [2, 0]"] ;
80 -> 92 ;
93 [label="gini = 0.0\nsamples = 4\nvalue = [4, 0]"] ;
79 -> 93 ;
94 [label="gini = 0.0\nsamples = 17\nvalue = [17, 0]"] ;
78 -> 94 ;
95 [label="X[17] <= 1.115\ngini = 0.087\nsamples = 263\nvalue = [251, 12]"] ;
77 -> 95 ;
96 [label="X[8] <= 0.227\ngini = 0.039\nsamples = 253\nvalue = [248, 5]"] ;
95 -> 96 ;
97 [label="X[19] <= -0.059\ngini = 0.025\nsamples = 239\nvalue = [236, 3]"] ;
96 -> 97 ;
98 [label="X[2] <= -0.276\ngini = 0.245\nsamples = 7\nvalue = [6, 1]"] ;
97 -> 98 ;
99 [label="gini = 0.0\nsamples = 1\nvalue = [0, 1]"] ;
98 -> 99 ;
100 [label="gini = 0.0\nsamples = 6\nvalue = [6, 0]"] ;
98 -> 100 ;
101 [label="X[1] <= 0.275\ngini = 0.017\nsamples = 232\nvalue = [230, 2]"] ;
97 -> 101 ;
102 [label="X[19] <= 1.394\ngini = 0.009\nsamples = 226\nvalue = [225, 1]"] ;
101 -> 102 ;
103 [label="gini = 0.0\nsamples = 203\nvalue = [203, 0]"] ;
102 -> 103 ;
104 [label="X[19] <= 1.418\ngini = 0.083\nsamples = 23\nvalue = [22, 1]"] ;
102 -> 104 ;
105 [label="gini = 0.0\nsamples = 1\nvalue = [0, 1]"] ;
104 -> 105 ;
106 [label="gini = 0.0\nsamples = 22\nvalue = [22, 0]"] ;
104 -> 106 ;
107 [label="X[6] <= -0.297\ngini = 0.278\nsamples = 6\nvalue = [5, 1]"] ;
101 -> 107 ;
108 [label="gini = 0.0\nsamples = 5\nvalue = [5, 0]"] ;
107 -> 108 ;
109 [label="gini = 0.0\nsamples = 1\nvalue = [0, 1]"] ;
107 -> 109 ;
110 [label="X[8] <= 0.247\ngini = 0.245\nsamples = 14\nvalue = [12, 2]"] ;
96 -> 110 ;
111 [label="gini = 0.0\nsamples = 1\nvalue = [0, 1]"] ;
110 -> 111 ;
112 [label="X[10] <= -0.026\ngini = 0.142\nsamples = 13\nvalue = [12, 1]"] ;
110 -> 112 ;
113 [label="X[21] <= 0.445\ngini = 0.5\nsamples = 2\nvalue = [1, 1]"] ;
112 -> 113 ;
114 [label="gini = 0.0\nsamples = 1\nvalue = [1, 0]"] ;
113 -> 114 ;
115 [label="gini = 0.0\nsamples = 1\nvalue = [0, 1]"] ;
113 -> 115 ;
116 [label="gini = 0.0\nsamples = 11\nvalue = [11, 0]"] ;
112 -> 116 ;
117 [label="X[3] <= -1.347\ngini = 0.42\nsamples = 10\nvalue = [3, 7]"] ;
95 -> 117 ;
118 [label="gini = 0.0\nsamples = 3\nvalue = [3, 0]"] ;
117 -> 118 ;
119 [label="gini = 0.0\nsamples = 7\nvalue = [0, 7]"] ;
117 -> 119 ;
120 [label="X[14] <= 2.207\ngini = 0.413\nsamples = 55\nvalue = [16, 39]"] ;
76 -> 120 ;
121 [label="X[7] <= 1.505\ngini = 0.325\nsamples = 49\nvalue = [10, 39]"] ;
120 -> 121 ;
122 [label="X[15] <= 0.282\ngini = 0.176\nsamples = 41\nvalue = [4, 37]"] ;
121 -> 122 ;
123 [label="X[6] <= 0.233\ngini = 0.48\nsamples = 5\nvalue = [3, 2]"] ;
122 -> 123 ;
124 [label="gini = 0.0\nsamples = 3\nvalue = [3, 0]"] ;
123 -> 124 ;
125 [label="gini = 0.0\nsamples = 2\nvalue = [0, 2]"] ;
123 -> 125 ;
126 [label="X[8] <= 0.846\ngini = 0.054\nsamples = 36\nvalue = [1, 35]"] ;
122 -> 126 ;
127 [label="X[18] <= 0.679\ngini = 0.444\nsamples = 3\nvalue = [1, 2]"] ;
126 -> 127 ;
128 [label="gini = 0.0\nsamples = 1\nvalue = [1, 0]"] ;
127 -> 128 ;
129 [label="gini = 0.0\nsamples = 2\nvalue = [0, 2]"] ;
127 -> 129 ;
130 [label="gini = 0.0\nsamples = 33\nvalue = [0, 33]"] ;
126 -> 130 ;
131 [label="X[1] <= -1.861\ngini = 0.375\nsamples = 8\nvalue = [6, 2]"] ;
121 -> 131 ;
132 [label="gini = 0.0\nsamples = 2\nvalue = [0, 2]"] ;
131 -> 132 ;
133 [label="gini = 0.0\nsamples = 6\nvalue = [6, 0]"] ;
131 -> 133 ;
134 [label="gini = 0.0\nsamples = 6\nvalue = [6, 0]"] ;
120 -> 134 ;
}
